{"input_weights": [[0.5102053880691528, 0.49326303601264954, -0.16655898094177246, -0.6683069467544556, 0.8053764700889587, 0.4277428984642029, 0.4417102336883545, -0.8776648044586182, 0.4462808668613434, -0.41513171792030334], [0.1556769162416458, -0.5690596103668213, 0.3508809804916382, -0.39826473593711853, 0.42463138699531555, 0.33410218358039856, -0.3155404031276703, -0.9704611897468567, 0.4093269407749176, -0.3322354257106781], [0.6880346536636353, 0.7724876999855042, 0.21324162185192108, 0.630415678024292, 0.06490433216094971, 1.0278176069259644, -0.15532438457012177, -0.25603365898132324, 0.47529101371765137, 0.02094447985291481]], "output_weights": [[0.41604357957839966, -0.017696859315037727], [0.9559892416000366, -0.35229504108428955], [0.5279064178466797, 0.4403393566608429], [0.3550559878349304, -0.41252511739730835], [-0.8562873005867004, -0.9525943398475647], [0.7309932112693787, -1.0460641384124756], [-0.5831845998764038, -0.16615478694438934], [0.35104650259017944, 0.23784473538398743], [0.21235989034175873, -0.605924665927887], [1.0519075393676758, 0.8778871297836304]]}