{"input_weights": [[0.901878926172677, 0.2509939991693154, 1.0093252481659347, 0.17581715406968285, 0.7290079654707646, -0.49829186695099725, -0.4985249954303176, -0.721669043416391, -0.16784145633413816, -0.6832281626353878], [0.6643257242604648, 0.05287291955675406, 1.0440526703556732, 0.08583844159775475, 0.27228337760292953, -0.7140773476254797, 1.0073259053232437, 0.6420699903137742, -0.7011696918282666, -0.19430487383193373], [0.0950128316104753, 1.0185590309415906, -0.054686277908697616, -0.1567947391726305, 0.29585300213393784, -0.6275767786885064, 0.6906995360164548, -0.0007812810309502263, -0.8746590322847074, 0.6613602064765554]], "output_weights": [[-0.6815079074889214, -0.7391056190589174], [-0.5149498032923929, -0.567186104509218], [-0.45933108869565, 1.1891378021622605], [-0.4382714287036034, -0.4988786653107013], [-0.5191372290707642, 0.6862669740347219], [0.844423894034859, -0.05327794733240221], [0.2737231214217806, -0.5570329554458066], [0.32471765916231965, -0.9806751887414118], [0.002857346932762222, -0.18822828506715192], [0.5322573010085262, -0.051633321806206854]]}