{"input_weights": [[0.24147484075066086, 0.030982495867492466, 0.974005519626454, -0.898329031356826, -0.3288958762943259, 0.18793782299273543, -0.2517064864929888, -0.7256894062843414, -0.5699823554522785, -0.3233328975393613], [-0.07751488402597269, -0.9912484665573342, 0.315409189733795, 0.2596151303404853, -0.4777276299972966, -0.5843098398853331, -0.5187127457865919, -1.04600773916992, -0.1293013223616763, 0.0068021125667452305], [0.8651944455741218, -0.714963862843815, -0.296522367172974, 0.25218753086018686, 0.9575898257593057, -0.21271214614743908, -0.02439038541283037, 0.7357310874893669, 0.10443350652601903, -0.26080510238878285]], "output_weights": [[0.0590496488908493, -0.397135056782625], [-0.3090932413385528, -0.42602617575559176], [-0.5227771898182377, -0.6676424106386197], [-0.4901241525809545, -0.2735542139882409], [0.8851580913794923, 0.30781201277224124], [-0.8679644056648964, 0.08067024247113092], [1.1243961430612353, 0.7167594444807266], [0.36369072803024666, 0.1972219642288928], [-0.16998562442188303, 0.48030311548013666], [-0.42281077734486794, 1.1349907749890569]]}