{"input_weights": [[1.015720248222351, -0.34987425804138184, 0.44280749559402466, -0.11908625811338425, 0.7656439542770386, -0.6222020387649536, 1.1441577672958374, 0.5969648957252502, 0.06794467568397522, -0.18275998532772064], [-0.529702365398407, 0.5525758862495422, -0.7397491931915283, 0.43130403757095337, -0.5941977500915527, 0.7731407880783081, 0.3097660541534424, 0.08258091658353806, -0.6057785749435425, 0.4987955391407013], [-1.1919869184494019, 0.6615102291107178, -0.0682586282491684, 0.5882858633995056, -0.4970897436141968, -0.6749556064605713, 0.10333137214183807, -0.1274368166923523, 0.20473265647888184, 0.099769726395607]], "output_weights": [[-1.2682054042816162, -0.1286877542734146], [0.6764280200004578, -0.0012416121317073703], [-0.23567187786102295, -0.9012429118156433], [-0.3682459890842438, -0.06184620037674904], [-1.1036828756332397, -0.7846104502677917], [-0.4740990400314331, -0.45812422037124634], [-0.2362114042043686, -1.0384480953216553], [-0.7650915384292603, -0.7378405332565308], [0.20196665823459625, -0.42775070667266846], [-0.2221769243478775, 0.21864254772663116]]}