{"input_weights": [[0.04033390075087641, -0.5945954702491846, -0.9938830035206616, -0.61420131474787, -0.6835628874812484, -0.11217931467740015, 0.7523012225339003, -0.5208942070197256, 0.9366051702780576, 0.22034970791422379, 0.44961602750837354, -0.09801486342221899, -0.5928897413644033, -0.23918295788459343, -0.28347770935004124, 0.6060133364442774, -0.9108647475678874, 0.6494681864661831, -0.3744369889590528, 0.5239975057938326, 0.02195187143491625, 0.03719425230292366, -0.885123260892987, 0.7487647640680815, -0.016443197287841056, 0.11845263116125598, -0.7997873999738553, 0.6443363388443832, 0.711282908369551, -0.8318292312702135], [-0.9415044378550352, 0.8629005632882538, -0.4407339161627032, 0.6221215334376763, 0.38038780058400157, -0.44112759174502497, -0.8601705094989651, 0.21480952698391323, -0.6953781171511533, -0.5165802411577564, 0.9906719749061016, 0.9817749275496911, 0.587860129196217, 0.06347030650795446, -0.05909978342058979, 0.0844107664473911, 0.07861716900924205, 0.33783291716382247, 0.2704319362911052, -0.4685927514648561, -0.674117238455236, 0.532450060869541, -0.2842757707341885, -0.5460548591846649, 0.7020023484768779, -0.28077321421608487, -0.2238047919879501, 0.48933521400694846, 0.026889982619221344, 0.5580038079250175], [0.7931864133079807, 0.8136565808470713, 0.7706442654199737, -0.43352149741321155, 0.28160013234892234, 0.8626370636857459, -0.9341962049923062, -0.022650656922454594, -0.657921973933551, 0.93292250994403, -0.3342174108968832, -0.6487757471733757, -0.17959756977846977, 0.26433342425120104, 0.7469747981694557, -0.9895021588139564, 0.5827798551261598, -0.6505382224774396, 0.7596643835363377, 0.6147252437431845, -0.37072615705062906, 0.3511863879912018, 0.7723003622295799, 0.20066611339603588, 0.15112475407689568, 0.757502852057028, 0.6841751143461076, -0.2817518221390744, -0.16703515252915205, 0.28569014622786976]], "output_weights": [[0.89841333956694, 0.6420070370323865], [0.14268955993499013, 0.4820115890417757], [0.16763858248552926, 0.7175013576577008], [0.36216764110746574, -0.45816399848334466], [0.6379560703250476, 0.0031449526361392423], [0.9749658926952147, 0.9636504119146141], [0.5231912438228531, -0.39239488371500425], [-0.637225009956635, -0.293720651142733], [0.9369249526634862, -0.24125498726405556], [0.0372796633867105, 0.522689056608326], [0.9898611012105978, 0.5157966521759808], [0.8847634575643575, -0.9655277636278156], [0.6708835524180896, 0.11510083867738098], [-0.5397190529557002, -0.743745055567751], [-0.37566751850436, 0.3277607173251211], [-0.5718140590547169, 0.32226159400937926], [-0.5542685021384626, -0.5384702464744205], [0.17520525754708485, -0.25091086523889755], [-0.787704520336612, 0.1785757691522734], [-0.22410482076065724, 0.09356724253302813], [0.6654585891746556, -0.4528249967827836], [-0.8803607133874062, 0.997854644609324], [-0.09356041991039879, -0.5863459344132989], [0.2698897429012789, -0.7868599763520394], [-0.2359562462836626, -0.6502871525154665], [-0.025586932891350955, -0.3058712110901773], [-0.7858412887729994, -0.32444779514734184], [-0.03316538223696883, 0.4876211150261905], [-0.4247027030364902, -0.9824804651494483], [-0.8217208636099101, 0.12439548943198686]]}